digraph Tree {
node [shape=box] ;
0 [label="X[0] <= -1.8617\nentropy = 0.795\nsamples = 200\nvalue = [48, 152]"] ;
1 [label="X[1] <= -2.7699\nentropy = 0.1292\nsamples = 56\nvalue = [1, 55]"] ;
0 -> 1 [labeldistance=2.5, labelangle=45, headlabel="True"] ;
2 [label="X[1] <= -2.8011\nentropy = 0.7219\nsamples = 5\nvalue = [1, 4]"] ;
1 -> 2 ;
3 [label="entropy = 0.0\nsamples = 4\nvalue = [0, 4]"] ;
2 -> 3 ;
4 [label="entropy = 0.0\nsamples = 1\nvalue = [1, 0]"] ;
2 -> 4 ;
5 [label="entropy = 0.0\nsamples = 51\nvalue = [0, 51]"] ;
1 -> 5 ;
6 [label="X[0] <= 1.9175\nentropy = 0.9112\nsamples = 144\nvalue = [47, 97]"] ;
0 -> 6 [labeldistance=2.5, labelangle=-45, headlabel="False"] ;
7 [label="X[1] <= -1.6882\nentropy = 0.9981\nsamples = 97\nvalue = [46, 51]"] ;
6 -> 7 ;
8 [label="X[0] <= 1.6264\nentropy = 0.2285\nsamples = 27\nvalue = [1, 26]"] ;
7 -> 8 ;
9 [label="entropy = 0.0\nsamples = 25\nvalue = [0, 25]"] ;
8 -> 9 ;
10 [label="entropy = 1.0\nsamples = 2\nvalue = [1, 1]"] ;
8 -> 10 ;
11 [label="X[1] <= 1.8321\nentropy = 0.9403\nsamples = 70\nvalue = [45, 25]"] ;
7 -> 11 ;
12 [label="X[0] <= -1.7467\nentropy = 0.258\nsamples = 46\nvalue = [44, 2]"] ;
11 -> 12 ;
13 [label="entropy = 1.0\nsamples = 2\nvalue = [1, 1]"] ;
12 -> 13 ;
14 [label="X[1] <= 1.5232\nentropy = 0.1565\nsamples = 44\nvalue = [43, 1]"] ;
12 -> 14 ;
15 [label="entropy = 0.0\nsamples = 41\nvalue = [41, 0]"] ;
14 -> 15 ;
16 [label="entropy = 0.9183\nsamples = 3\nvalue = [2, 1]"] ;
14 -> 16 ;
17 [label="X[0] <= -1.3784\nentropy = 0.2499\nsamples = 24\nvalue = [1, 23]"] ;
11 -> 17 ;
18 [label="X[0] <= -1.4221\nentropy = 0.65\nsamples = 6\nvalue = [1, 5]"] ;
17 -> 18 ;
19 [label="entropy = 0.0\nsamples = 5\nvalue = [0, 5]"] ;
18 -> 19 ;
20 [label="entropy = 0.0\nsamples = 1\nvalue = [1, 0]"] ;
18 -> 20 ;
21 [label="entropy = 0.0\nsamples = 18\nvalue = [0, 18]"] ;
17 -> 21 ;
22 [label="X[1] <= -2.9984\nentropy = 0.1485\nsamples = 47\nvalue = [1, 46]"] ;
6 -> 22 ;
23 [label="X[1] <= -3.2155\nentropy = 0.65\nsamples = 6\nvalue = [1, 5]"] ;
22 -> 23 ;
24 [label="entropy = 0.0\nsamples = 5\nvalue = [0, 5]"] ;
23 -> 24 ;
25 [label="entropy = 0.0\nsamples = 1\nvalue = [1, 0]"] ;
23 -> 25 ;
26 [label="entropy = 0.0\nsamples = 41\nvalue = [0, 41]"] ;
22 -> 26 ;
}